digraph Tree {
node [shape=box] ;
0 [label="mag_phone_y_freq_0.0_Hz_ws_40 <= -350.7314\nentropy = 1.1039\nsamples = 206\nvalue = [26, 158, 18, 1, 3]\nclass = labelSitting"] ;
1 [label="mag_phone_z_temp_mean_ws_120 <= -64.2875\nentropy = 0.0969\nsamples = 160\nvalue = [0, 158, 2, 0, 0]\nclass = labelSitting"] ;
0 -> 1 [labeldistance=2.5, labelangle=45, headlabel="True"] ;
2 [label="entropy = 0.0\nsamples = 2\nvalue = [0, 0, 2, 0, 0]\nclass = labelSmoking"] ;
1 -> 2 ;
3 [label="entropy = 0.0\nsamples = 158\nvalue = [0, 158, 0, 0, 0]\nclass = labelSitting"] ;
1 -> 3 ;
4 [label="mag_phone_z_temp_mean_ws_120 <= -63.9114\nentropy = 1.3721\nsamples = 46\nvalue = [26, 0, 16, 1, 3]\nclass = labelOnTable"] ;
0 -> 4 [labeldistance=2.5, labelangle=-45, headlabel="False"] ;
5 [label="entropy = 0.0\nsamples = 26\nvalue = [26, 0, 0, 0, 0]\nclass = labelOnTable"] ;
4 -> 5 ;
6 [label="pca_4_temp_mean_ws_120 <= -0.0081\nentropy = 0.8842\nsamples = 20\nvalue = [0, 0, 16, 1, 3]\nclass = labelSmoking"] ;
4 -> 6 ;
7 [label="entropy = 0.0\nsamples = 16\nvalue = [0, 0, 16, 0, 0]\nclass = labelSmoking"] ;
6 -> 7 ;
8 [label="gyr_phone_y_freq_1.1_Hz_ws_40 <= 33.4987\nentropy = 0.8113\nsamples = 4\nvalue = [0, 0, 0, 1, 3]\nclass = labelWalkingStairs"] ;
6 -> 8 ;
9 [label="entropy = 0.0\nsamples = 2\nvalue = [0, 0, 0, 0, 2]\nclass = labelWalkingStairs"] ;
8 -> 9 ;
10 [label="entropy = 1.0\nsamples = 2\nvalue = [0, 0, 0, 1, 1]\nclass = labelStandingInElevator"] ;
8 -> 10 ;
}